<Root>
  <ActivationFunctions>
    <Fn id="0" name="SteepenedSigmoid" prob="1" />
  </ActivationFunctions>
  <Networks>
    <Network id="6370" birthGen="78" fitness="1218">
      <Nodes>
        <Node type="bias" id="0" />
        <Node type="in" id="1" />
        <Node type="in" id="2" />
        <Node type="in" id="3" />
        <Node type="in" id="4" />
        <Node type="in" id="5" />
        <Node type="in" id="6" />
        <Node type="in" id="7" />
        <Node type="in" id="8" />
        <Node type="in" id="9" />
        <Node type="in" id="10" />
        <Node type="in" id="11" />
        <Node type="in" id="12" />
        <Node type="in" id="13" />
        <Node type="in" id="14" />
        <Node type="in" id="15" />
        <Node type="in" id="16" />
        <Node type="in" id="17" />
        <Node type="in" id="18" />
        <Node type="in" id="19" />
        <Node type="in" id="20" />
        <Node type="in" id="21" />
        <Node type="in" id="22" />
        <Node type="in" id="23" />
        <Node type="in" id="24" />
        <Node type="in" id="25" />
        <Node type="out" id="26" />
        <Node type="out" id="27" />
        <Node type="out" id="28" />
        <Node type="out" id="29" />
        <Node type="out" id="30" />
        <Node type="out" id="31" />
        <Node type="out" id="32" />
        <Node type="out" id="33" />
        <Node type="out" id="34" />
        <Node type="out" id="35" />
        <Node type="out" id="36" />
        <Node type="out" id="37" />
        <Node type="out" id="38" />
        <Node type="out" id="39" />
        <Node type="out" id="40" />
        <Node type="out" id="41" />
        <Node type="out" id="42" />
        <Node type="out" id="43" />
        <Node type="out" id="44" />
        <Node type="out" id="45" />
        <Node type="out" id="46" />
        <Node type="out" id="47" />
        <Node type="out" id="48" />
        <Node type="out" id="49" />
        <Node type="out" id="50" />
      </Nodes>
      <Connections>
        <Con id="57" src="0" tgt="32" wght="0.8855761107668757" />
        <Con id="128" src="3" tgt="28" wght="-2.7157395879601318" />
        <Con id="146" src="3" tgt="46" wght="-4.5826580393141247" />
        <Con id="167" src="4" tgt="42" wght="-3.0626184805310248" />
        <Con id="173" src="4" tgt="48" wght="-1.1555589736133252" />
        <Con id="187" src="5" tgt="37" wght="-1.6136740427464247" />
        <Con id="190" src="5" tgt="40" wght="-1.6860169864862231" />
        <Con id="199" src="5" tgt="49" wght="0.43295223014314677" />
        <Con id="240" src="7" tgt="40" wght="2.9143794160336256" />
        <Con id="274" src="8" tgt="49" wght="3.1879889825358987" />
        <Con id="291" src="9" tgt="41" wght="0.18266384091775703" />
        <Con id="302" src="10" tgt="27" wght="-1.3251463742926717" />
        <Con id="312" src="10" tgt="37" wght="-2.9762811865657568" />
        <Con id="318" src="10" tgt="43" wght="2.4518392948035612" />
        <Con id="322" src="10" tgt="47" wght="1.310327442074706" />
        <Con id="376" src="13" tgt="26" wght="-1.406223328805837" />
        <Con id="396" src="13" tgt="46" wght="4.7241672594100237" />
        <Con id="401" src="14" tgt="26" wght="-2.1553559327764" />
        <Con id="404" src="14" tgt="29" wght="-1.5172273358064712" />
        <Con id="419" src="14" tgt="44" wght="-1.5677800423980874" />
        <Con id="438" src="15" tgt="38" wght="-0.66445045412489068" />
        <Con id="439" src="15" tgt="39" wght="0.78556764941336688" />
        <Con id="475" src="16" tgt="50" wght="2.277329474736447" />
        <Con id="527" src="19" tgt="27" wght="-4.0640085423365235" />
        <Con id="540" src="19" tgt="40" wght="2.2458234228776317" />
        <Con id="556" src="20" tgt="31" wght="3.1071801512352009" />
        <Con id="582" src="21" tgt="32" wght="0.10137288477572355" />
        <Con id="612" src="22" tgt="37" wght="4.8798506799763235" />
        <Con id="619" src="22" tgt="44" wght="2.7692697088797975" />
        <Con id="624" src="22" tgt="49" wght="3.243759972974658" />
        <Con id="630" src="23" tgt="30" wght="-3.1351090336047265" />
        <Con id="648" src="23" tgt="48" wght="4.1778964597932431" />
        <Con id="728" src="32" tgt="37" wght="-2.5959487057173152" />
      </Connections>
    </Network>
  </Networks>
</Root>