<Root>
  <ActivationFunctions>
    <Fn id="0" name="SteepenedSigmoid" prob="1" />
  </ActivationFunctions>
  <Networks>
    <Network id="6495" birthGen="52" fitness="1035">
      <Nodes>
        <Node type="bias" id="0" />
        <Node type="in" id="1" />
        <Node type="in" id="2" />
        <Node type="in" id="3" />
        <Node type="in" id="4" />
        <Node type="in" id="5" />
        <Node type="in" id="6" />
        <Node type="in" id="7" />
        <Node type="in" id="8" />
        <Node type="in" id="9" />
        <Node type="in" id="10" />
        <Node type="in" id="11" />
        <Node type="in" id="12" />
        <Node type="in" id="13" />
        <Node type="in" id="14" />
        <Node type="in" id="15" />
        <Node type="in" id="16" />
        <Node type="in" id="17" />
        <Node type="in" id="18" />
        <Node type="in" id="19" />
        <Node type="in" id="20" />
        <Node type="in" id="21" />
        <Node type="in" id="22" />
        <Node type="in" id="23" />
        <Node type="in" id="24" />
        <Node type="in" id="25" />
        <Node type="out" id="26" />
        <Node type="out" id="27" />
        <Node type="out" id="28" />
        <Node type="out" id="29" />
        <Node type="out" id="30" />
        <Node type="out" id="31" />
        <Node type="out" id="32" />
        <Node type="out" id="33" />
        <Node type="out" id="34" />
        <Node type="out" id="35" />
        <Node type="out" id="36" />
        <Node type="out" id="37" />
        <Node type="out" id="38" />
        <Node type="out" id="39" />
        <Node type="out" id="40" />
        <Node type="out" id="41" />
        <Node type="out" id="42" />
        <Node type="out" id="43" />
        <Node type="out" id="44" />
        <Node type="out" id="45" />
        <Node type="out" id="46" />
        <Node type="out" id="47" />
        <Node type="out" id="48" />
        <Node type="out" id="49" />
        <Node type="out" id="50" />
      </Nodes>
      <Connections>
        <Con id="56" src="0" tgt="31" wght="2.0283927768468857" />
        <Con id="60" src="0" tgt="35" wght="-3.5462628893843657" />
        <Con id="63" src="0" tgt="38" wght="0.93609888160659493" />
        <Con id="71" src="0" tgt="46" wght="5" />
        <Con id="79" src="1" tgt="29" wght="0.78967800363898277" />
        <Con id="91" src="1" tgt="41" wght="4.3565972987562418" />
        <Con id="97" src="1" tgt="47" wght="2.5421466201013247" />
        <Con id="127" src="3" tgt="27" wght="2.8883608674178642" />
        <Con id="129" src="3" tgt="29" wght="0.60932370759825849" />
        <Con id="134" src="3" tgt="34" wght="4.1904566716402769" />
        <Con id="140" src="3" tgt="40" wght="-0.71845280312885107" />
        <Con id="149" src="3" tgt="49" wght="0.48248950857669115" />
        <Con id="167" src="4" tgt="42" wght="-3.7676186021417379" />
        <Con id="195" src="5" tgt="45" wght="-3.5288498666873798" />
        <Con id="212" src="6" tgt="37" wght="1.0674150619856311" />
        <Con id="241" src="7" tgt="41" wght="-2.0409832897015145" />
        <Con id="275" src="8" tgt="50" wght="-1.108826809275794" />
        <Con id="286" src="9" tgt="36" wght="-1.1195349477048235" />
        <Con id="317" src="10" tgt="42" wght="-3.7382352113544863" />
        <Con id="335" src="11" tgt="35" wght="1.0322278324046474" />
        <Con id="343" src="11" tgt="43" wght="-2.2281991727350792" />
        <Con id="373" src="12" tgt="48" wght="0.97408413352400869" />
        <Con id="417" src="14" tgt="42" wght="-4.5331077463924885" />
        <Con id="432" src="15" tgt="32" wght="-0.39875379178295317" />
        <Con id="433" src="15" tgt="33" wght="-3.5866144299507141" />
        <Con id="457" src="16" tgt="32" wght="-3.8285054866349286" />
        <Con id="472" src="16" tgt="47" wght="-1.6494214259500442" />
        <Con id="491" src="17" tgt="41" wght="3.748301924442226" />
        <Con id="497" src="17" tgt="47" wght="1.3150327059128073" />
        <Con id="572" src="20" tgt="47" wght="4.7126425942406058" />
        <Con id="648" src="23" tgt="48" wght="-3.6704537589557731" />
        <Con id="654" src="24" tgt="29" wght="3.3342261751235034" />
        <Con id="658" src="24" tgt="33" wght="3.2184307184070349" />
        <Con id="721" src="22" tgt="36" wght="-0.12732740491628647" />
        <Con id="740" src="3" tgt="37" wght="-0.796773973852396" />
      </Connections>
    </Network>
  </Networks>
</Root>