<Root>
  <ActivationFunctions>
    <Fn id="0" name="SteepenedSigmoid" prob="1" />
  </ActivationFunctions>
  <Networks>
    <Network id="1121" birthGen="9" fitness="950">
      <Nodes>
        <Node type="bias" id="0" />
        <Node type="in" id="1" />
        <Node type="in" id="2" />
        <Node type="in" id="3" />
        <Node type="in" id="4" />
        <Node type="in" id="5" />
        <Node type="in" id="6" />
        <Node type="in" id="7" />
        <Node type="in" id="8" />
        <Node type="in" id="9" />
        <Node type="in" id="10" />
        <Node type="in" id="11" />
        <Node type="in" id="12" />
        <Node type="in" id="13" />
        <Node type="in" id="14" />
        <Node type="in" id="15" />
        <Node type="in" id="16" />
        <Node type="in" id="17" />
        <Node type="in" id="18" />
        <Node type="in" id="19" />
        <Node type="in" id="20" />
        <Node type="in" id="21" />
        <Node type="in" id="22" />
        <Node type="in" id="23" />
        <Node type="in" id="24" />
        <Node type="in" id="25" />
        <Node type="out" id="26" />
        <Node type="out" id="27" />
        <Node type="out" id="28" />
        <Node type="out" id="29" />
        <Node type="out" id="30" />
        <Node type="out" id="31" />
        <Node type="out" id="32" />
        <Node type="out" id="33" />
        <Node type="out" id="34" />
        <Node type="out" id="35" />
        <Node type="out" id="36" />
        <Node type="out" id="37" />
        <Node type="out" id="38" />
        <Node type="out" id="39" />
        <Node type="out" id="40" />
        <Node type="out" id="41" />
        <Node type="out" id="42" />
        <Node type="out" id="43" />
        <Node type="out" id="44" />
        <Node type="out" id="45" />
        <Node type="out" id="46" />
        <Node type="out" id="47" />
        <Node type="out" id="48" />
        <Node type="out" id="49" />
        <Node type="out" id="50" />
      </Nodes>
      <Connections>
        <Con id="59" src="0" tgt="34" wght="1.4640503004193306" />
        <Con id="68" src="0" tgt="43" wght="-4.8841746570542455" />
        <Con id="132" src="3" tgt="32" wght="-1.3841435685753822" />
        <Con id="154" src="4" tgt="29" wght="-2.946326588280499" />
        <Con id="175" src="4" tgt="50" wght="-4.4805246870964766" />
        <Con id="177" src="5" tgt="27" wght="1.9815263291820884" />
        <Con id="189" src="5" tgt="39" wght="0.26749258172012019" />
        <Con id="191" src="5" tgt="41" wght="-2.2599078750316739" />
        <Con id="195" src="5" tgt="45" wght="-4.6300511807203293" />
        <Con id="217" src="6" tgt="42" wght="0.46729353722184896" />
        <Con id="256" src="8" tgt="31" wght="-3.4455122938379645" />
        <Con id="268" src="8" tgt="43" wght="0.49433746375143528" />
        <Con id="274" src="8" tgt="49" wght="2.2773835364569246" />
        <Con id="289" src="9" tgt="39" wght="0.73108777403831482" />
        <Con id="301" src="10" tgt="26" wght="4.4667463377118111" />
        <Con id="337" src="11" tgt="37" wght="-4.2769843200221658" />
        <Con id="364" src="12" tgt="39" wght="-0.067522586323320866" />
        <Con id="374" src="12" tgt="49" wght="-4.4697344675660133" />
        <Con id="384" src="13" tgt="34" wght="-3.2901350175961852" />
        <Con id="385" src="13" tgt="35" wght="-3.7442172085866332" />
        <Con id="405" src="14" tgt="30" wght="2.2956322599202394" />
        <Con id="425" src="14" tgt="50" wght="3.8651204342022538" />
        <Con id="426" src="15" tgt="26" wght="-2.502630827948451" />
        <Con id="516" src="18" tgt="41" wght="2.4818554142105329" />
        <Con id="535" src="19" tgt="35" wght="-2.4293647380545735" />
        <Con id="539" src="19" tgt="39" wght="4.3533580657094717" />
        <Con id="541" src="19" tgt="41" wght="-3.4763352759182453" />
        <Con id="558" src="20" tgt="33" wght="4.4203063473105431" />
        <Con id="563" src="20" tgt="38" wght="-2.5952010042965412" />
        <Con id="591" src="21" tgt="41" wght="-4.4615047099068761" />
        <Con id="608" src="22" tgt="33" wght="-2.2203221265226603" />
        <Con id="618" src="22" tgt="43" wght="0.13581079430878162" />
        <Con id="693" src="25" tgt="43" wght="-2.6801954163238406" />
      </Connections>
    </Network>
  </Networks>
</Root>