<Root>
  <ActivationFunctions>
    <Fn id="0" name="SteepenedSigmoid" prob="1" />
  </ActivationFunctions>
  <Networks>
    <Network id="11181" birthGen="90" fitness="1150">
      <Nodes>
        <Node type="bias" id="0" />
        <Node type="in" id="1" />
        <Node type="in" id="2" />
        <Node type="in" id="3" />
        <Node type="in" id="4" />
        <Node type="in" id="5" />
        <Node type="in" id="6" />
        <Node type="in" id="7" />
        <Node type="in" id="8" />
        <Node type="in" id="9" />
        <Node type="in" id="10" />
        <Node type="in" id="11" />
        <Node type="in" id="12" />
        <Node type="in" id="13" />
        <Node type="in" id="14" />
        <Node type="in" id="15" />
        <Node type="in" id="16" />
        <Node type="in" id="17" />
        <Node type="in" id="18" />
        <Node type="in" id="19" />
        <Node type="in" id="20" />
        <Node type="in" id="21" />
        <Node type="in" id="22" />
        <Node type="in" id="23" />
        <Node type="in" id="24" />
        <Node type="in" id="25" />
        <Node type="out" id="26" />
        <Node type="out" id="27" />
        <Node type="out" id="28" />
        <Node type="out" id="29" />
        <Node type="out" id="30" />
        <Node type="out" id="31" />
        <Node type="out" id="32" />
        <Node type="out" id="33" />
        <Node type="out" id="34" />
        <Node type="out" id="35" />
        <Node type="out" id="36" />
        <Node type="out" id="37" />
        <Node type="out" id="38" />
        <Node type="out" id="39" />
        <Node type="out" id="40" />
        <Node type="out" id="41" />
        <Node type="out" id="42" />
        <Node type="out" id="43" />
        <Node type="out" id="44" />
        <Node type="out" id="45" />
        <Node type="out" id="46" />
        <Node type="out" id="47" />
        <Node type="out" id="48" />
        <Node type="out" id="49" />
        <Node type="out" id="50" />
        <Node type="hid" id="716" />
        <Node type="hid" id="761" />
      </Nodes>
      <Connections>
        <Con id="53" src="0" tgt="28" wght="2.6782088305369429" />
        <Con id="66" src="0" tgt="41" wght="-0.79723576527603812" />
        <Con id="67" src="0" tgt="42" wght="4.9327255892117687" />
        <Con id="98" src="1" tgt="48" wght="-0.9813665867364072" />
        <Con id="108" src="2" tgt="33" wght="-4.7742195442594832" />
        <Con id="202" src="6" tgt="27" wght="0.046737904334452025" />
        <Con id="233" src="7" tgt="33" wght="-2.2963155794271342" />
        <Con id="251" src="8" tgt="26" wght="3.1021213795873921" />
        <Con id="272" src="8" tgt="47" wght="4.272080415476446" />
        <Con id="281" src="9" tgt="31" wght="-1.4585202083917754" />
        <Con id="300" src="9" tgt="50" wght="4.810737663397652" />
        <Con id="316" src="10" tgt="41" wght="-4.5435133250430226" />
        <Con id="321" src="10" tgt="46" wght="3.342316011353013" />
        <Con id="343" src="11" tgt="43" wght="4.27286798736819" />
        <Con id="430" src="15" tgt="30" wght="3.4276879786221652" />
        <Con id="458" src="16" tgt="33" wght="-3.2469715473623277" />
        <Con id="462" src="16" tgt="37" wght="-2.4240424554088507" />
        <Con id="499" src="17" tgt="49" wght="3.3459371803253437" />
        <Con id="531" src="19" tgt="31" wght="4.5276690693572164" />
        <Con id="538" src="19" tgt="38" wght="-0.33484826702020432" />
        <Con id="560" src="20" tgt="35" wght="-3.1219719781495958" />
        <Con id="564" src="20" tgt="39" wght="-1.2386157556245505" />
        <Con id="585" src="21" tgt="35" wght="-4.4176237798138818" />
        <Con id="588" src="21" tgt="38" wght="-2.5989424610347718" />
        <Con id="605" src="22" tgt="30" wght="-4.81813633809407" />
        <Con id="623" src="22" tgt="48" wght="4.2971703503280878" />
        <Con id="629" src="23" tgt="29" wght="2.3048062296584249" />
        <Con id="636" src="23" tgt="36" wght="-0.11395743684975951" />
        <Con id="646" src="23" tgt="46" wght="-0.072726705353931553" />
        <Con id="659" src="24" tgt="34" wght="2.8474167035892606" />
        <Con id="673" src="24" tgt="48" wght="0.26931655593216419" />
        <Con id="717" src="19" tgt="716" wght="2.0440417447495189" />
        <Con id="718" src="716" tgt="26" wght="5" />
        <Con id="734" src="38" tgt="50" wght="2.5071581735088317" />
        <Con id="762" src="12" tgt="761" wght="2.4755558371543884" />
        <Con id="763" src="761" tgt="27" wght="5" />
        <Con id="824" src="49" tgt="47" wght="-3.1195457838475704" />
        <Con id="832" src="31" tgt="37" wght="-0.29261506162583828" />
      </Connections>
    </Network>
  </Networks>
</Root>