<Root>
  <ActivationFunctions>
    <Fn id="0" name="SteepenedSigmoid" prob="1" />
  </ActivationFunctions>
  <Networks>
    <Network id="127" birthGen="0" fitness="819">
      <Nodes>
        <Node type="bias" id="0" />
        <Node type="in" id="1" />
        <Node type="in" id="2" />
        <Node type="in" id="3" />
        <Node type="in" id="4" />
        <Node type="in" id="5" />
        <Node type="in" id="6" />
        <Node type="in" id="7" />
        <Node type="in" id="8" />
        <Node type="in" id="9" />
        <Node type="in" id="10" />
        <Node type="in" id="11" />
        <Node type="in" id="12" />
        <Node type="in" id="13" />
        <Node type="in" id="14" />
        <Node type="in" id="15" />
        <Node type="in" id="16" />
        <Node type="in" id="17" />
        <Node type="in" id="18" />
        <Node type="in" id="19" />
        <Node type="in" id="20" />
        <Node type="in" id="21" />
        <Node type="in" id="22" />
        <Node type="in" id="23" />
        <Node type="in" id="24" />
        <Node type="in" id="25" />
        <Node type="out" id="26" />
        <Node type="out" id="27" />
        <Node type="out" id="28" />
        <Node type="out" id="29" />
        <Node type="out" id="30" />
        <Node type="out" id="31" />
        <Node type="out" id="32" />
        <Node type="out" id="33" />
        <Node type="out" id="34" />
        <Node type="out" id="35" />
        <Node type="out" id="36" />
        <Node type="out" id="37" />
        <Node type="out" id="38" />
        <Node type="out" id="39" />
        <Node type="out" id="40" />
        <Node type="out" id="41" />
        <Node type="out" id="42" />
        <Node type="out" id="43" />
        <Node type="out" id="44" />
        <Node type="out" id="45" />
        <Node type="out" id="46" />
        <Node type="out" id="47" />
        <Node type="out" id="48" />
        <Node type="out" id="49" />
        <Node type="out" id="50" />
      </Nodes>
      <Connections>
        <Con id="79" src="1" tgt="29" wght="-4.84121504239738" />
        <Con id="83" src="1" tgt="33" wght="4.5620296150445938" />
        <Con id="117" src="2" tgt="42" wght="-2.0256338734179735" />
        <Con id="131" src="3" tgt="31" wght="-2.5350799132138491" />
        <Con id="170" src="4" tgt="45" wght="-2.9118760162964463" />
        <Con id="174" src="4" tgt="49" wght="-4.8969569941982627" />
        <Con id="198" src="5" tgt="48" wght="-4.3268651887774467" />
        <Con id="218" src="6" tgt="43" wght="-0.66879335325211287" />
        <Con id="240" src="7" tgt="40" wght="-3.712308625690639" />
        <Con id="264" src="8" tgt="39" wght="4.9588918965309858" />
        <Con id="267" src="8" tgt="42" wght="-1.318559180945158" />
        <Con id="314" src="10" tgt="39" wght="-2.9293164378032088" />
        <Con id="330" src="11" tgt="30" wght="-2.880743402056396" />
        <Con id="343" src="11" tgt="43" wght="0.093546705320477486" />
        <Con id="371" src="12" tgt="46" wght="1.9156413478776813" />
        <Con id="391" src="13" tgt="41" wght="4.9546031514182687" />
        <Con id="424" src="14" tgt="49" wght="-3.8965463032945991" />
        <Con id="444" src="15" tgt="44" wght="-3.1762279197573662" />
        <Con id="470" src="16" tgt="45" wght="1.2225841730833054" />
        <Con id="474" src="16" tgt="49" wght="4.4542248733341694" />
        <Con id="508" src="18" tgt="33" wght="3.3662701956927776" />
        <Con id="510" src="18" tgt="35" wght="4.26177971996367" />
        <Con id="518" src="18" tgt="43" wght="3.9389945426955819" />
        <Con id="520" src="18" tgt="45" wght="2.3574312496930361" />
        <Con id="590" src="21" tgt="40" wght="-1.7229888122528791" />
        <Con id="597" src="21" tgt="47" wght="3.2108823582530022" />
        <Con id="628" src="23" tgt="28" wght="1.7974478285759687" />
        <Con id="663" src="24" tgt="38" wght="-1.8914829101413488" />
        <Con id="664" src="24" tgt="39" wght="0.63668075948953629" />
        <Con id="669" src="24" tgt="44" wght="3.1127616530284286" />
        <Con id="680" src="25" tgt="30" wght="0.36433730740100145" />
        <Con id="688" src="25" tgt="38" wght="-0.3748535318300128" />
      </Connections>
    </Network>
  </Networks>
</Root>