<Root>
  <ActivationFunctions>
    <Fn id="0" name="SteepenedSigmoid" prob="1" />
  </ActivationFunctions>
  <Networks>
    <Network id="2513" birthGen="31" fitness="380">
      <Nodes>
        <Node type="bias" id="0" />
        <Node type="in" id="1" />
        <Node type="in" id="2" />
        <Node type="in" id="3" />
        <Node type="in" id="4" />
        <Node type="in" id="5" />
        <Node type="in" id="6" />
        <Node type="in" id="7" />
        <Node type="in" id="8" />
        <Node type="in" id="9" />
        <Node type="in" id="10" />
        <Node type="in" id="11" />
        <Node type="in" id="12" />
        <Node type="in" id="13" />
        <Node type="in" id="14" />
        <Node type="in" id="15" />
        <Node type="in" id="16" />
        <Node type="in" id="17" />
        <Node type="in" id="18" />
        <Node type="in" id="19" />
        <Node type="in" id="20" />
        <Node type="in" id="21" />
        <Node type="in" id="22" />
        <Node type="in" id="23" />
        <Node type="in" id="24" />
        <Node type="in" id="25" />
        <Node type="out" id="26" />
        <Node type="out" id="27" />
        <Node type="out" id="28" />
        <Node type="out" id="29" />
        <Node type="out" id="30" />
        <Node type="out" id="31" />
        <Node type="out" id="32" />
        <Node type="out" id="33" />
        <Node type="out" id="34" />
        <Node type="out" id="35" />
        <Node type="out" id="36" />
        <Node type="out" id="37" />
        <Node type="out" id="38" />
        <Node type="out" id="39" />
        <Node type="out" id="40" />
        <Node type="out" id="41" />
        <Node type="out" id="42" />
        <Node type="out" id="43" />
        <Node type="out" id="44" />
        <Node type="out" id="45" />
        <Node type="out" id="46" />
        <Node type="out" id="47" />
        <Node type="out" id="48" />
        <Node type="out" id="49" />
        <Node type="out" id="50" />
      </Nodes>
      <Connections>
        <Con id="129" src="3" tgt="29" wght="-2.1239285405444988" />
        <Con id="151" src="4" tgt="26" wght="0.040684561245143414" />
        <Con id="159" src="4" tgt="34" wght="-0.588661584073147" />
        <Con id="165" src="4" tgt="40" wght="1.8700266489759088" />
        <Con id="166" src="4" tgt="41" wght="1.0262837646995635" />
        <Con id="185" src="5" tgt="35" wght="-2.5397269135954721" />
        <Con id="207" src="6" tgt="32" wght="-4.9490646133199334" />
        <Con id="211" src="6" tgt="36" wght="-0.99819107976327637" />
        <Con id="241" src="7" tgt="41" wght="-3.34266852636398" />
        <Con id="253" src="8" tgt="28" wght="5" />
        <Con id="274" src="8" tgt="49" wght="2.2553174197673798" />
        <Con id="313" src="10" tgt="38" wght="2.0346366707235575" />
        <Con id="328" src="11" tgt="28" wght="-3.3506395389352193" />
        <Con id="367" src="12" tgt="42" wght="2.4242893124067284" />
        <Con id="448" src="15" tgt="48" wght="-3.2146959519013762" />
        <Con id="449" src="15" tgt="49" wght="2.7761931903660297" />
        <Con id="459" src="16" tgt="34" wght="-2.19667611643672" />
        <Con id="475" src="16" tgt="50" wght="-2.7551929885521531" />
        <Con id="498" src="17" tgt="48" wght="4.5728706102818251" />
        <Con id="509" src="18" tgt="34" wght="-1.4738242235034704" />
        <Con id="516" src="18" tgt="41" wght="1.7288215864944676" />
        <Con id="521" src="18" tgt="46" wght="-2.6329703526856716" />
        <Con id="527" src="19" tgt="27" wght="-4.5404117787256837" />
        <Con id="528" src="19" tgt="28" wght="0.10276968125253916" />
        <Con id="578" src="21" tgt="28" wght="3.6683637043461204" />
        <Con id="579" src="21" tgt="29" wght="-0.56958022061735392" />
        <Con id="598" src="21" tgt="48" wght="0.46259556570563332" />
        <Con id="610" src="22" tgt="35" wght="2.4675937731491326" />
        <Con id="621" src="22" tgt="46" wght="3.3394407154992223" />
        <Con id="671" src="24" tgt="46" wght="4.4648197432979941" />
        <Con id="685" src="25" tgt="35" wght="4.1651806261481665" />
        <Con id="691" src="25" tgt="41" wght="-4.0705293429422271" />
      </Connections>
    </Network>
  </Networks>
</Root>