<Root>
  <ActivationFunctions>
    <Fn id="0" name="SteepenedSigmoid" prob="1" />
  </ActivationFunctions>
  <Networks>
    <Network id="10924" birthGen="90" fitness="1152">
      <Nodes>
        <Node type="bias" id="0" />
        <Node type="in" id="1" />
        <Node type="in" id="2" />
        <Node type="in" id="3" />
        <Node type="in" id="4" />
        <Node type="in" id="5" />
        <Node type="in" id="6" />
        <Node type="in" id="7" />
        <Node type="in" id="8" />
        <Node type="in" id="9" />
        <Node type="in" id="10" />
        <Node type="in" id="11" />
        <Node type="in" id="12" />
        <Node type="in" id="13" />
        <Node type="in" id="14" />
        <Node type="in" id="15" />
        <Node type="in" id="16" />
        <Node type="in" id="17" />
        <Node type="in" id="18" />
        <Node type="in" id="19" />
        <Node type="in" id="20" />
        <Node type="in" id="21" />
        <Node type="in" id="22" />
        <Node type="in" id="23" />
        <Node type="in" id="24" />
        <Node type="in" id="25" />
        <Node type="out" id="26" />
        <Node type="out" id="27" />
        <Node type="out" id="28" />
        <Node type="out" id="29" />
        <Node type="out" id="30" />
        <Node type="out" id="31" />
        <Node type="out" id="32" />
        <Node type="out" id="33" />
        <Node type="out" id="34" />
        <Node type="out" id="35" />
        <Node type="out" id="36" />
        <Node type="out" id="37" />
        <Node type="out" id="38" />
        <Node type="out" id="39" />
        <Node type="out" id="40" />
        <Node type="out" id="41" />
        <Node type="out" id="42" />
        <Node type="out" id="43" />
        <Node type="out" id="44" />
        <Node type="out" id="45" />
        <Node type="out" id="46" />
        <Node type="out" id="47" />
        <Node type="out" id="48" />
        <Node type="out" id="49" />
        <Node type="out" id="50" />
      </Nodes>
      <Connections>
        <Con id="64" src="0" tgt="39" wght="0.72359293551217441" />
        <Con id="73" src="0" tgt="48" wght="-3.2691898012481935" />
        <Con id="144" src="3" tgt="44" wght="-1.3585391538967686" />
        <Con id="152" src="4" tgt="27" wght="4.9403233547530432" />
        <Con id="156" src="4" tgt="31" wght="-2.6943035330623388" />
        <Con id="195" src="5" tgt="45" wght="3.9002053838620192" />
        <Con id="201" src="6" tgt="26" wght="3.1374728410000468" />
        <Con id="216" src="6" tgt="41" wght="-3.3977826327467993" />
        <Con id="253" src="8" tgt="28" wght="-0.57414178152614315" />
        <Con id="271" src="8" tgt="46" wght="-2.7754287221033676" />
        <Con id="275" src="8" tgt="50" wght="1.1068926937878132" />
        <Con id="276" src="9" tgt="26" wght="-0.98378366820135532" />
        <Con id="308" src="10" tgt="33" wght="-4.51861179881078" />
        <Con id="318" src="10" tgt="43" wght="-2.6315274788066745" />
        <Con id="344" src="11" tgt="44" wght="4.0397002545213114" />
        <Con id="349" src="11" tgt="49" wght="-4.657228880429324" />
        <Con id="362" src="12" tgt="37" wght="2.4645163025707006" />
        <Con id="370" src="12" tgt="45" wght="-1.2795159500092268" />
        <Con id="380" src="13" tgt="30" wght="0.6533721148258318" />
        <Con id="396" src="13" tgt="46" wght="-2.0209150522318713" />
        <Con id="426" src="15" tgt="26" wght="-4.22847217575143" />
        <Con id="439" src="15" tgt="39" wght="1.7381874611601233" />
        <Con id="452" src="16" tgt="27" wght="0.80667476724495479" />
        <Con id="457" src="16" tgt="32" wght="-0.97621478606015444" />
        <Con id="487" src="17" tgt="37" wght="-2.7027342049009468" />
        <Con id="507" src="18" tgt="32" wght="2.3007028893992723" />
        <Con id="514" src="18" tgt="39" wght="0.57589763646874592" />
        <Con id="525" src="18" tgt="50" wght="3.0207427843556207" />
        <Con id="569" src="20" tgt="44" wght="-2.1414237266292981" />
        <Con id="682" src="25" tgt="32" wght="-4.7389645495307615" />
        <Con id="690" src="25" tgt="40" wght="-4.5130790257826447" />
        <Con id="695" src="25" tgt="45" wght="3.9373831537210915" />
      </Connections>
    </Network>
  </Networks>
</Root>