<Root>
  <ActivationFunctions>
    <Fn id="0" name="SteepenedSigmoid" prob="1" />
  </ActivationFunctions>
  <Networks>
    <Network id="83" birthGen="0" fitness="950">
      <Nodes>
        <Node type="bias" id="0" />
        <Node type="in" id="1" />
        <Node type="in" id="2" />
        <Node type="in" id="3" />
        <Node type="in" id="4" />
        <Node type="in" id="5" />
        <Node type="in" id="6" />
        <Node type="in" id="7" />
        <Node type="in" id="8" />
        <Node type="in" id="9" />
        <Node type="in" id="10" />
        <Node type="in" id="11" />
        <Node type="in" id="12" />
        <Node type="in" id="13" />
        <Node type="in" id="14" />
        <Node type="in" id="15" />
        <Node type="in" id="16" />
        <Node type="in" id="17" />
        <Node type="in" id="18" />
        <Node type="in" id="19" />
        <Node type="in" id="20" />
        <Node type="in" id="21" />
        <Node type="in" id="22" />
        <Node type="in" id="23" />
        <Node type="in" id="24" />
        <Node type="in" id="25" />
        <Node type="out" id="26" />
        <Node type="out" id="27" />
        <Node type="out" id="28" />
        <Node type="out" id="29" />
        <Node type="out" id="30" />
        <Node type="out" id="31" />
        <Node type="out" id="32" />
        <Node type="out" id="33" />
        <Node type="out" id="34" />
        <Node type="out" id="35" />
        <Node type="out" id="36" />
        <Node type="out" id="37" />
        <Node type="out" id="38" />
        <Node type="out" id="39" />
        <Node type="out" id="40" />
        <Node type="out" id="41" />
        <Node type="out" id="42" />
        <Node type="out" id="43" />
        <Node type="out" id="44" />
        <Node type="out" id="45" />
        <Node type="out" id="46" />
        <Node type="out" id="47" />
        <Node type="out" id="48" />
        <Node type="out" id="49" />
        <Node type="out" id="50" />
      </Nodes>
      <Connections>
        <Con id="56" src="0" tgt="31" wght="4.3487198604270816" />
        <Con id="72" src="0" tgt="47" wght="-1.3057834981009364" />
        <Con id="102" src="2" tgt="27" wght="-1.5159694151952863" />
        <Con id="133" src="3" tgt="33" wght="3.1247833790257573" />
        <Con id="173" src="4" tgt="48" wght="-0.44322075787931681" />
        <Con id="177" src="5" tgt="27" wght="-3.1527305953204632" />
        <Con id="184" src="5" tgt="34" wght="-0.50724926870316267" />
        <Con id="239" src="7" tgt="39" wght="4.4207958877086639" />
        <Con id="280" src="9" tgt="30" wght="-0.88887642603367567" />
        <Con id="296" src="9" tgt="46" wght="1.8804675061255693" />
        <Con id="297" src="9" tgt="47" wght="-0.11173073202371597" />
        <Con id="298" src="9" tgt="48" wght="2.5240129791200161" />
        <Con id="328" src="11" tgt="28" wght="-4.2271015932783484" />
        <Con id="337" src="11" tgt="37" wght="2.5452697137370706" />
        <Con id="339" src="11" tgt="39" wght="3.5699298279359937" />
        <Con id="382" src="13" tgt="32" wght="0.38138573057949543" />
        <Con id="392" src="13" tgt="42" wght="1.7006663372740149" />
        <Con id="393" src="13" tgt="43" wght="-4.82883176766336" />
        <Con id="413" src="14" tgt="38" wght="-4.215089320205152" />
        <Con id="431" src="15" tgt="31" wght="0.37880248855799437" />
        <Con id="438" src="15" tgt="38" wght="0.6994958221912384" />
        <Con id="494" src="17" tgt="44" wght="3.3783621666952968" />
        <Con id="508" src="18" tgt="33" wght="-3.5559446131810546" />
        <Con id="520" src="18" tgt="45" wght="-1.6198635241016746" />
        <Con id="540" src="19" tgt="40" wght="4.4678001431748271" />
        <Con id="542" src="19" tgt="42" wght="1.7344700079411268" />
        <Con id="547" src="19" tgt="47" wght="3.9107469189912081" />
        <Con id="566" src="20" tgt="41" wght="0.053808325901627541" />
        <Con id="583" src="21" tgt="33" wght="-1.7448438983410597" />
        <Con id="619" src="22" tgt="44" wght="-3.4474669536575675" />
        <Con id="627" src="23" tgt="27" wght="4.1404354479163885" />
        <Con id="643" src="23" tgt="43" wght="-0.64385270699858665" />
      </Connections>
    </Network>
  </Networks>
</Root>