<Root>
  <ActivationFunctions>
    <Fn id="0" name="SteepenedSigmoid" prob="1" />
  </ActivationFunctions>
  <Networks>
    <Network id="56524" birthGen="704" fitness="1184">
      <Nodes>
        <Node type="bias" id="0" />
        <Node type="in" id="1" />
        <Node type="in" id="2" />
        <Node type="in" id="3" />
        <Node type="in" id="4" />
        <Node type="in" id="5" />
        <Node type="in" id="6" />
        <Node type="in" id="7" />
        <Node type="in" id="8" />
        <Node type="in" id="9" />
        <Node type="in" id="10" />
        <Node type="in" id="11" />
        <Node type="in" id="12" />
        <Node type="in" id="13" />
        <Node type="in" id="14" />
        <Node type="in" id="15" />
        <Node type="in" id="16" />
        <Node type="in" id="17" />
        <Node type="in" id="18" />
        <Node type="in" id="19" />
        <Node type="in" id="20" />
        <Node type="in" id="21" />
        <Node type="in" id="22" />
        <Node type="in" id="23" />
        <Node type="in" id="24" />
        <Node type="in" id="25" />
        <Node type="out" id="26" />
        <Node type="out" id="27" />
        <Node type="out" id="28" />
        <Node type="out" id="29" />
        <Node type="out" id="30" />
        <Node type="out" id="31" />
        <Node type="out" id="32" />
        <Node type="out" id="33" />
        <Node type="out" id="34" />
        <Node type="out" id="35" />
        <Node type="out" id="36" />
        <Node type="out" id="37" />
        <Node type="out" id="38" />
        <Node type="out" id="39" />
        <Node type="out" id="40" />
        <Node type="out" id="41" />
        <Node type="out" id="42" />
        <Node type="out" id="43" />
        <Node type="out" id="44" />
        <Node type="out" id="45" />
        <Node type="out" id="46" />
        <Node type="out" id="47" />
        <Node type="out" id="48" />
        <Node type="out" id="49" />
        <Node type="out" id="50" />
        <Node type="hid" id="885" />
      </Nodes>
      <Connections>
        <Con id="58" src="0" tgt="33" wght="-1.4921460841745828" />
        <Con id="72" src="0" tgt="47" wght="4.82187240932998" />
        <Con id="79" src="1" tgt="29" wght="0.29669016915672752" />
        <Con id="91" src="1" tgt="41" wght="-0.81722294446247978" />
        <Con id="101" src="2" tgt="26" wght="-3.1133591990382072" />
        <Con id="107" src="2" tgt="32" wght="-4.9551172639189254" />
        <Con id="108" src="2" tgt="33" wght="1.0638390456269919" />
        <Con id="139" src="3" tgt="39" wght="-4.5971476435484853" />
        <Con id="140" src="3" tgt="40" wght="-0.49540505926742784" />
        <Con id="146" src="3" tgt="46" wght="0.20524350805757416" />
        <Con id="157" src="4" tgt="32" wght="-2.4732137098908424" />
        <Con id="162" src="4" tgt="37" wght="-5" />
        <Con id="165" src="4" tgt="40" wght="0.87658344364583329" />
        <Con id="177" src="5" tgt="27" wght="1.7641208366671888" />
        <Con id="178" src="5" tgt="28" wght="-4.24141599406803" />
        <Con id="180" src="5" tgt="30" wght="-1.7291665857019152" />
        <Con id="186" src="5" tgt="36" wght="2.6476101908714886" />
        <Con id="188" src="5" tgt="38" wght="2.9768072168835573" />
        <Con id="190" src="5" tgt="40" wght="0.5890995229755831" />
        <Con id="194" src="5" tgt="44" wght="-0.32818779321225172" />
        <Con id="195" src="5" tgt="45" wght="-1.6751370066282161" />
        <Con id="197" src="5" tgt="47" wght="3.3901565575335937" />
        <Con id="198" src="5" tgt="48" wght="-0.43596036987415432" />
        <Con id="200" src="5" tgt="50" wght="3.177298828959465" />
        <Con id="205" src="6" tgt="30" wght="-5" />
        <Con id="231" src="7" tgt="31" wght="3.1353223174458478" />
        <Con id="238" src="7" tgt="38" wght="-0.88862501212378386" />
        <Con id="248" src="7" tgt="48" wght="1.5670471147753826" />
        <Con id="254" src="8" tgt="29" wght="-0.92756174307798223" />
        <Con id="256" src="8" tgt="31" wght="-1.3700687287881654" />
        <Con id="263" src="8" tgt="38" wght="-5" />
        <Con id="265" src="8" tgt="40" wght="4.1139473396172583" />
        <Con id="269" src="8" tgt="44" wght="2.2520804530158274" />
        <Con id="286" src="9" tgt="36" wght="-0.11495552514437934" />
        <Con id="297" src="9" tgt="47" wght="-1.9174286405418219" />
        <Con id="299" src="9" tgt="49" wght="3.9414715731737808" />
        <Con id="316" src="10" tgt="41" wght="0.56823989898143734" />
        <Con id="319" src="10" tgt="44" wght="-2.8814683784858879" />
        <Con id="324" src="10" tgt="49" wght="-4.5285948290975062" />
        <Con id="339" src="11" tgt="39" wght="-2.4573801373196362" />
        <Con id="342" src="11" tgt="42" wght="-5" />
        <Con id="348" src="11" tgt="48" wght="2.0739748285905639" />
        <Con id="374" src="12" tgt="49" wght="-2.0242965966463089" />
        <Con id="392" src="13" tgt="42" wght="2.0534101816843755" />
        <Con id="398" src="13" tgt="48" wght="1.9858674798445826" />
        <Con id="420" src="14" tgt="45" wght="2.7339378767618645" />
        <Con id="454" src="16" tgt="29" wght="4.3517151853777385" />
        <Con id="458" src="16" tgt="33" wght="3.9355184480718775" />
        <Con id="462" src="16" tgt="37" wght="-3.6301400099456496" />
        <Con id="465" src="16" tgt="40" wght="-1.201127359750235" />
        <Con id="473" src="16" tgt="48" wght="-0.99950281046395961" />
        <Con id="478" src="17" tgt="28" wght="-0.8162915161121076" />
        <Con id="480" src="17" tgt="30" wght="-1.4748448036264172" />
        <Con id="482" src="17" tgt="32" wght="-3.7564191389316473" />
        <Con id="489" src="17" tgt="39" wght="-4.820161956173048" />
        <Con id="496" src="17" tgt="46" wght="4.3343039819372784" />
        <Con id="497" src="17" tgt="47" wght="-1.5522815788658342" />
        <Con id="500" src="17" tgt="50" wght="2.4649245523726355" />
        <Con id="501" src="18" tgt="26" wght="5" />
        <Con id="507" src="18" tgt="32" wght="-2.9779453825661188" />
        <Con id="509" src="18" tgt="34" wght="0.27960630928414409" />
        <Con id="514" src="18" tgt="39" wght="2.5767211058290207" />
        <Con id="528" src="19" tgt="28" wght="-3.8016831187795725" />
        <Con id="547" src="19" tgt="47" wght="-4.2277474742366179" />
        <Con id="551" src="20" tgt="26" wght="3.5801888628474332" />
        <Con id="552" src="20" tgt="27" wght="0.07759758970847265" />
        <Con id="555" src="20" tgt="30" wght="0.63977318250580506" />
        <Con id="559" src="20" tgt="34" wght="4.7925238013640961" />
        <Con id="569" src="20" tgt="44" wght="1.9767401566215304" />
        <Con id="573" src="20" tgt="48" wght="3.9686006493829873" />
        <Con id="594" src="21" tgt="44" wght="0.42158282371685041" />
        <Con id="596" src="21" tgt="46" wght="-4.12778934316774" />
        <Con id="602" src="22" tgt="27" wght="3.4705199207101378" />
        <Con id="608" src="22" tgt="33" wght="4.9146496689027357" />
        <Con id="612" src="22" tgt="37" wght="-2.893739715218544" />
        <Con id="613" src="22" tgt="38" wght="4.9249457874019908" />
        <Con id="617" src="22" tgt="42" wght="-3.3070371844953081" />
        <Con id="619" src="22" tgt="44" wght="5" />
        <Con id="624" src="22" tgt="49" wght="-3.2427102134623063" />
        <Con id="626" src="23" tgt="26" wght="1.1417900191934898" />
        <Con id="635" src="23" tgt="35" wght="1.58433961736694" />
        <Con id="640" src="23" tgt="40" wght="-2.9133706819266081" />
        <Con id="644" src="23" tgt="44" wght="-0.84585911128669977" />
        <Con id="649" src="23" tgt="49" wght="1.2966418798251029" />
        <Con id="650" src="23" tgt="50" wght="-3.0145820742674494" />
        <Con id="653" src="24" tgt="28" wght="-0.0978882715449767" />
        <Con id="671" src="24" tgt="46" wght="0.00995954265917234" />
        <Con id="677" src="25" tgt="27" wght="-1.7825969048068602" />
        <Con id="679" src="25" tgt="29" wght="-0.8218892891472841" />
        <Con id="683" src="25" tgt="33" wght="-4.4774717831122377" />
        <Con id="698" src="25" tgt="48" wght="-2.8432090523471873" />
        <Con id="700" src="25" tgt="50" wght="3.5914726941284321" />
        <Con id="747" src="34" tgt="38" wght="2.7501345320034742" />
        <Con id="755" src="31" tgt="33" wght="-2.51501902197531" />
        <Con id="763" src="28" tgt="36" wght="-2.364020500349219" />
        <Con id="772" src="17" tgt="45" wght="-3.0314064304751156" />
        <Con id="778" src="18" tgt="31" wght="-2.0278188981537175" />
        <Con id="788" src="1" tgt="35" wght="2.6837237654023327" />
        <Con id="798" src="6" tgt="48" wght="0.85133673179207392" />
        <Con id="836" src="34" tgt="31" wght="-0.598098528929811" />
        <Con id="848" src="39" tgt="37" wght="1.7643305107822647" />
        <Con id="867" src="31" tgt="48" wght="1.7689963909654092" />
        <Con id="871" src="38" tgt="27" wght="2.0881171733365385" />
        <Con id="886" src="24" tgt="885" wght="2.940169177018106" />
        <Con id="887" src="885" tgt="27" wght="4.2431821986823586" />
        <Con id="1090" src="43" tgt="41" wght="0.98620235692790126" />
      </Connections>
    </Network>
  </Networks>
</Root>